<?xml version="1.0"?>
<opencv_storage>
<cascade>
  <stageType>BOOST</stageType>
  <featureType>HAAR</featureType>
  <height>24</height>
  <width>24</width>
  <stageParams>
    <boostType>GAB</boostType>
    <minHitRate>9.9500000476837158e-01</minHitRate>
    <maxFalseAlarm>5.0000000000000000e-01</maxFalseAlarm>
    <weightTrimRate>9.4999998807907104e-01</weightTrimRate>
    <maxDepth>1</maxDepth>
    <maxWeakCount>100</maxWeakCount></stageParams>
  <featureParams>
    <maxCatCount>0</maxCatCount>
    <featSize>1</featSize>
    <mode>BASIC</mode></featureParams>
  <stageNum>12</stageNum>
  <stages>
    <!-- stage 0 -->
    <_>
      <maxWeakCount>2</maxWeakCount>
      <stageThreshold>-2.9544776305556297e-02</stageThreshold>
      <weakClassifiers>
        <_>
          <internalNodes>
            0 -1 3 -1.9957390427589417e-01</internalNodes>
          <leafValues>
            1. -9.6078431606292725e-01</leafValues></_>
        <_>
          <internalNodes>
            0 -1 8 -1.1859282851219177e-01</internalNodes>
          <leafValues>
            9.3123954534530640e-01 -9.6189004182815552e-01</leafValues></_></weakClassifiers></_>
    <!-- stage 1 -->
    <_>
      <maxWeakCount>2</maxWeakCount>
      <stageThreshold>-2.0511554181575775e-01</stageThreshold>
      <weakClassifiers>
        <_>
          <internalNodes>
            0 -1 13 -3.0261072516441345e-01</internalNodes>
          <leafValues>
            8.8888889551162720e-01 -9.6039605140686035e-01</leafValues></_>
        <_>
          <internalNodes>
            0 -1 22 6.0438994318246841e-02</internalNodes>
          <leafValues>
            -9.3837350606918335e-01 7.5528049468994141e-01</leafValues></_></weakClassifiers></_>
    <!-- stage 2 -->
    <_>
      <maxWeakCount>2</maxWeakCount>
      <stageThreshold>-2.5636315345764160e-01</stageThreshold>
      <weakClassifiers>
        <_>
          <internalNodes>
            0 -1 23 -2.2351520135998726e-02</internalNodes>
          <leafValues>
            7.7777779102325439e-01 -9.4059407711029053e-01</leafValues></_>
        <_>
          <internalNodes>
            0 -1 11 -6.1716713011264801e-02</internalNodes>
          <leafValues>
            6.8423092365264893e-01 -9.7722160816192627e-01</leafValues></_></weakClassifiers></_>
    <!-- stage 3 -->
    <_>
      <maxWeakCount>2</maxWeakCount>
      <stageThreshold>-9.2987427487969398e-03</stageThreshold>
      <weakClassifiers>
        <_>
          <internalNodes>
            0 -1 1 -4.7612476348876953e-01</internalNodes>
          <leafValues>
            1. -8.6915886402130127e-01</leafValues></_>
        <_>
          <internalNodes>
            0 -1 2 1.7256727814674377e-01</internalNodes>
          <leafValues>
            -8.0417644977569580e-01 8.5986012220382690e-01</leafValues></_></weakClassifiers></_>
    <!-- stage 4 -->
    <_>
      <maxWeakCount>2</maxWeakCount>
      <stageThreshold>-1.9392624497413635e-01</stageThreshold>
      <weakClassifiers>
        <_>
          <internalNodes>
            0 -1 24 -1.5588695183396339e-02</internalNodes>
          <leafValues>
            1. -9.2307692766189575e-01</leafValues></_>
        <_>
          <internalNodes>
            0 -1 10 8.2806721329689026e-03</internalNodes>
          <leafValues>
            -9.8049086332321167e-01 7.2915071249008179e-01</leafValues></_></weakClassifiers></_>
    <!-- stage 5 -->
    <_>
      <maxWeakCount>2</maxWeakCount>
      <stageThreshold>-6.0634553432464600e-01</stageThreshold>
      <weakClassifiers>
        <_>
          <internalNodes>
            0 -1 6 -4.9515482038259506e-02</internalNodes>
          <leafValues>
            4.2857143282890320e-01 -9.1836732625961304e-01</leafValues></_>
        <_>
          <internalNodes>
            0 -1 0 2.5842715986073017e-03</internalNodes>
          <leafValues>
            -1. 3.1202182173728943e-01</leafValues></_></weakClassifiers></_>
    <!-- stage 6 -->
    <_>
      <maxWeakCount>3</maxWeakCount>
      <stageThreshold>-1.1551134586334229e+00</stageThreshold>
      <weakClassifiers>
        <_>
          <internalNodes>
            0 -1 9 -4.8208273947238922e-02</internalNodes>
          <leafValues>
            4.0000000596046448e-01 -8.9898991584777832e-01</leafValues></_>
        <_>
          <internalNodes>
            0 -1 12 3.5483310930430889e-03</internalNodes>
          <leafValues>
            -7.2882395982742310e-01 7.9838275909423828e-01</leafValues></_>
        <_>
          <internalNodes>
            0 -1 25 1.7730209510773420e-03</internalNodes>
          <leafValues>
            -1. 4.7270035743713379e-01</leafValues></_></weakClassifiers></_>
    <!-- stage 7 -->
    <_>
      <maxWeakCount>2</maxWeakCount>
      <stageThreshold>-5.1243579387664795e-01</stageThreshold>
      <weakClassifiers>
        <_>
          <internalNodes>
            0 -1 18 -9.3271639198064804e-03</internalNodes>
          <leafValues>
            7.1428573131561279e-01 -8.6666667461395264e-01</leafValues></_>
        <_>
          <internalNodes>
            0 -1 14 3.2210550270974636e-03</internalNodes>
          <leafValues>
            -9.7223293781280518e-01 3.5423088073730469e-01</leafValues></_></weakClassifiers></_>
    <!-- stage 8 -->
    <_>
      <maxWeakCount>3</maxWeakCount>
      <stageThreshold>-1.0555589199066162e+00</stageThreshold>
      <weakClassifiers>
        <_>
          <internalNodes>
            0 -1 16 -1.4390611322596669e-03</internalNodes>
          <leafValues>
            1. -8.6915886402130127e-01</leafValues></_>
        <_>
          <internalNodes>
            0 -1 20 -1.7429035156965256e-02</internalNodes>
          <leafValues>
            5.3488516807556152e-01 -8.4239125251770020e-01</leafValues></_>
        <_>
          <internalNodes>
            0 -1 7 7.0386286824941635e-03</internalNodes>
          <leafValues>
            -7.2128522396087646e-01 7.7255046367645264e-01</leafValues></_></weakClassifiers></_>
    <!-- stage 9 -->
    <_>
      <maxWeakCount>2</maxWeakCount>
      <stageThreshold>-3.9908567070960999e-01</stageThreshold>
      <weakClassifiers>
        <_>
          <internalNodes>
            0 -1 17 6.7699127830564976e-03</internalNodes>
          <leafValues>
            -8.3333331346511841e-01 8.1818181276321411e-01</leafValues></_>
        <_>
          <internalNodes>
            0 -1 26 -7.6894299127161503e-04</internalNodes>
          <leafValues>
            4.3424764275550842e-01 -9.5179480314254761e-01</leafValues></_></weakClassifiers></_>
    <!-- stage 10 -->
    <_>
      <maxWeakCount>2</maxWeakCount>
      <stageThreshold>-3.1551542878150940e-01</stageThreshold>
      <weakClassifiers>
        <_>
          <internalNodes>
            0 -1 4 -1.2446451000869274e-02</internalNodes>
          <leafValues>
            1. -8.1818181276321411e-01</leafValues></_>
        <_>
          <internalNodes>
            0 -1 15 -1.9018080085515976e-02</internalNodes>
          <leafValues>
            5.0266641378402710e-01 -1.</leafValues></_></weakClassifiers></_>
    <!-- stage 11 -->
    <_>
      <maxWeakCount>3</maxWeakCount>
      <stageThreshold>-8.4378194808959961e-01</stageThreshold>
      <weakClassifiers>
        <_>
          <internalNodes>
            0 -1 19 -9.8893076181411743e-02</internalNodes>
          <leafValues>
            8.5714286565780640e-01 -8.8571429252624512e-01</leafValues></_>
        <_>
          <internalNodes>
            0 -1 21 4.1461377404630184e-03</internalNodes>
          <leafValues>
            -8.1440371274948120e-01 6.9336628913879395e-01</leafValues></_>
        <_>
          <internalNodes>
            0 -1 5 -3.1677001714706421e-01</internalNodes>
          <leafValues>
            9.4261854887008667e-01 -6.5143400430679321e-01</leafValues></_></weakClassifiers></_></stages>
  <features>
    <_>
      <rects>
        <_>
          0 3 2 21 -1.</_>
        <_>
          0 10 2 7 3.</_></rects>
      <tilted>0</tilted></_>
    <_>
      <rects>
        <_>
          0 4 19 20 -1.</_>
        <_>
          0 14 19 10 2.</_></rects>
      <tilted>0</tilted></_>
    <_>
      <rects>
        <_>
          0 7 21 16 -1.</_>
        <_>
          0 15 21 8 2.</_></rects>
      <tilted>0</tilted></_>
    <_>
      <rects>
        <_>
          0 9 24 8 -1.</_>
        <_>
          8 9 8 8 3.</_></rects>
      <tilted>0</tilted></_>
    <_>
      <rects>
        <_>
          0 16 24 3 -1.</_>
        <_>
          0 17 24 1 3.</_></rects>
      <tilted>0</tilted></_>
    <_>
      <rects>
        <_>
          2 3 16 14 -1.</_>
        <_>
          2 10 16 7 2.</_></rects>
      <tilted>0</tilted></_>
    <_>
      <rects>
        <_>
          2 6 10 6 -1.</_>
        <_>
          7 6 5 6 2.</_></rects>
      <tilted>0</tilted></_>
    <_>
      <rects>
        <_>
          2 13 3 6 -1.</_>
        <_>
          2 15 3 2 3.</_></rects>
      <tilted>0</tilted></_>
    <_>
      <rects>
        <_>
          3 0 20 24 -1.</_>
        <_>
          3 8 20 8 3.</_></rects>
      <tilted>0</tilted></_>
    <_>
      <rects>
        <_>
          3 1 12 10 -1.</_>
        <_>
          3 1 6 5 2.</_>
        <_>
          9 6 6 5 2.</_></rects>
      <tilted>0</tilted></_>
    <_>
      <rects>
        <_>
          3 6 19 9 -1.</_>
        <_>
          3 9 19 3 3.</_></rects>
      <tilted>0</tilted></_>
    <_>
      <rects>
        <_>
          4 1 9 10 -1.</_>
        <_>
          4 6 9 5 2.</_></rects>
      <tilted>0</tilted></_>
    <_>
      <rects>
        <_>
          4 9 3 3 -1.</_>
        <_>
          4 10 3 1 3.</_></rects>
      <tilted>0</tilted></_>
    <_>
      <rects>
        <_>
          5 0 13 18 -1.</_>
        <_>
          5 9 13 9 2.</_></rects>
      <tilted>0</tilted></_>
    <_>
      <rects>
        <_>
          5 11 8 6 -1.</_>
        <_>
          5 11 4 3 2.</_>
        <_>
          9 14 4 3 2.</_></rects>
      <tilted>0</tilted></_>
    <_>
      <rects>
        <_>
          5 13 7 10 -1.</_>
        <_>
          5 18 7 5 2.</_></rects>
      <tilted>0</tilted></_>
    <_>
      <rects>
        <_>
          7 10 1 3 -1.</_>
        <_>
          7 11 1 1 3.</_></rects>
      <tilted>0</tilted></_>
    <_>
      <rects>
        <_>
          7 11 8 3 -1.</_>
        <_>
          7 12 8 1 3.</_></rects>
      <tilted>0</tilted></_>
    <_>
      <rects>
        <_>
          9 8 6 3 -1.</_>
        <_>
          11 8 2 3 3.</_></rects>
      <tilted>0</tilted></_>
    <_>
      <rects>
        <_>
          10 0 4 14 -1.</_>
        <_>
          10 7 4 7 2.</_></rects>
      <tilted>0</tilted></_>
    <_>
      <rects>
        <_>
          10 5 10 4 -1.</_>
        <_>
          10 7 10 2 2.</_></rects>
      <tilted>0</tilted></_>
    <_>
      <rects>
        <_>
          12 18 9 2 -1.</_>
        <_>
          12 19 9 1 2.</_></rects>
      <tilted>0</tilted></_>
    <_>
      <rects>
        <_>
          13 4 10 14 -1.</_>
        <_>
          13 4 5 7 2.</_>
        <_>
          18 11 5 7 2.</_></rects>
      <tilted>0</tilted></_>
    <_>
      <rects>
        <_>
          15 9 4 8 -1.</_>
        <_>
          15 13 4 4 2.</_></rects>
      <tilted>0</tilted></_>
    <_>
      <rects>
        <_>
          17 9 3 8 -1.</_>
        <_>
          17 13 3 4 2.</_></rects>
      <tilted>0</tilted></_>
    <_>
      <rects>
        <_>
          18 19 6 5 -1.</_>
        <_>
          21 19 3 5 2.</_></rects>
      <tilted>0</tilted></_>
    <_>
      <rects>
        <_>
          22 20 1 4 -1.</_>
        <_>
          22 22 1 2 2.</_></rects>
      <tilted>0</tilted></_></features></cascade>
</opencv_storage>
